335 15
营业期限 -0.025526019 -0.033191472 -0.029839527 -0.025659336 0.031072496 -0.0006881491 0.026803503 -0.013848154 -0.019005861 -0.0035907954 -0.02457712 0.020538261 -0.018560551 -0.011991562 -0.014820363
所属行业 -0.028416125 -0.013235661 0.026144713 0.023354974 -0.028301304 0.007778761 -0.006180876 -0.014831061 0.032035474 -0.011590193 -0.007887703 -0.010560797 0.0148285115 0.026296968 -0.021052608
国家级众创空间 0.00526943 0.006504259 -0.0016216572 -0.012680337 -0.02723949 0.029504262 -0.008278754 -0.021736402 0.021497939 0.002740768 0.0144409 0.012078387 -0.0077408864 -0.0072370805 -0.0021008432
高新技术企业 0.025008876 0.021096116 -0.024032306 -0.022829127 -0.027289221 -0.018080534 -0.017435078 -0.03293309 0.025300577 0.007744544 -0.018129215 -0.026744297 -0.026951909 0.014525338 0.023700006
智能工厂 0.018967567 0.0036578428 -0.025326062 -0.0062432378 -0.009951842 -0.025445016 0.012880909 0.0050663627 0.025918549 0.0066070408 0.031683937 -0.011290036 -0.01101225 0.02486798 -0.013683893
科研院所 -0.00090911274 0.030810658 0.021223359 0.0008392982 -0.007615712 -0.008884706 0.016991923 -0.0063788635 0.029067617 -0.009381092 0.032801308 0.029586818 0.005899321 0.008026059 0.017498598
PCB -0.018667849 -0.0053130686 0.01679355 -0.02158383 -0.018837329 0.022151787 0.016513709 -0.007655839 -0.020542849 0.03142474 0.0022559348 0.017640205 0.014497439 -0.02548183 -0.021278745
光模块 -0.020893078 -0.0056018704 0.029019997 -0.00883801 0.012800235 0.01170742 0.032704964 -0.012584053 0.00983514 0.020659465 0.017362695 -0.03265038 -0.012441004 -0.025807826 -0.0018868714
宏站 -0.0019679219 0.0062427605 -0.01588504 -0.009346983 -0.029023834 -0.018881027 0.019050552 0.026499327 -0.008026298 0.021504512 0.03064431 0.033104066 -0.012927181 0.028020868 -0.02312529
企业指标 0.002168307 0.012175025 0.016000167 -0.02973956 0.006526351 -0.011664685 -0.029501153 0.031245802 0.029163169 -0.013089367 0.03286216 -0.005056699 0.00085757877 -0.014802859 0.008447435
个人指标 -0.016129574 0.020461157 -0.023042923 -0.0048310924 -0.0026154278 -0.017994631 -0.021312874 -0.0011700256 0.012244908 -0.026400885 0.02581373 -0.030163333 -0.014978657 0.009921615 -0.00014391262
注册资本 0.0025408233 0.001988969 -0.03180709 -0.024138289 0.02281838 0.0027739701 -0.027060667 -0.03071514 -0.029280037 0.0015564557 -0.015912915 -0.03296584 0.008483364 -0.016109899 0.02327708
注册地区 0.025761487 -0.018857677 -0.00095856615 -0.010880297 -0.025239997 -0.021181168 0.00057468057 -0.005500619 0.030962573 -0.022324683 0.02894347 0.033055987 0.0059407814 0.032688603 -0.0077472185
注册时间 0.00041409323 -0.020981792 -0.028323753 0.032953423 -0.020491974 0.0064701685 0.0032507463 0.03263124 -0.027084824 0.025624162 -0.005990912 -0.033114593 -0.01342643 0.031781223 0.003404897
企业地址 0.0088621965 0.005717683 -0.0080986 0.029973198 -0.0065996256 0.009439071 -0.010804927 -0.029539637 0.0055919453 -0.00011193253 -0.026749875 -0.0028142612 -0.02021305 0.026409952 -0.031052046
企业所属省 -0.009233287 -0.024618704 -0.016025051 -0.015005848 -0.023481315 0.019577798 0.00395679 -0.027502444 -0.029296268 0.01902529 0.023677135 0.011322079 0.0074391216 0.028617091 -0.0094134305
企业所属市 -0.011364879 0.02444254 0.027632168 0.0032194627 -0.028096456 0.0043209065 0.020381466 0.015626581 -0.008936198 -0.010370273 0.03196685 0.01602964 0.019157156 -0.010177946 -0.0072567104
企业所属县 0.0022745419 -0.0022640023 0.024187904 0.016839102 -0.021234166 -0.0043295254 -0.011196255 0.031666256 -0.013377049 -0.014836427 0.031012235 -0.020849755 -0.021501778 -0.02043345 0.008323805
行业 0.020924868 0.030417394 0.0056007733 -0.025231967 0.01868029 0.005667385 0.026123155 0.028627116 -0.006600578 0.023316966 0.010473463 -0.027748894 -0.023895165 -0.019527057 0.0041344734
经营范围 -0.0009627705 -0.015051305 0.031338815 0.013886649 0.023318589 -0.0062429374 0.016202992 -0.027808206 0.02767485 0.022164037 0.015033373 -0.0194903 0.010816624 0.02976998 0.004594637
经营状态 0.011805705 0.026817964 -0.0022323306 -0.02980783 0.009952953 -0.029238865 0.014919523 0.016530043 0.009445831 0.009236411 0.007809902 0.027482845 -5.7667545e-05 0.028683338 -0.031652816
企业类型 -0.021293296 -0.014031904 0.010437523 -0.031194411 0.018890694 -0.018017916 0.0042459904 -0.015725536 0.017373098 0.026619725 0.0117199635 -0.0021959876 -0.006883931 0.03150201 -0.009179188
成立日期 -0.0107141035 0.027447373 -0.00016718937 0.02674042 0.023419846 -0.016770324 0.00090009184 0.0018221348 -0.02196966 0.016317172 0.0027444027 -0.006601194 -0.032172564 0.015481962 -0.009999132
实收资本（万） 0.023484752 0.031555492 -0.030016834 0.010040372 0.02664164 0.017561782 -0.022578515 -0.008018459 -0.0135054095 -0.0017306965 0.0026970732 0.00024039214 -0.016806884 -0.014282037 0.029308822
参保人数 -0.012026696 -0.028745152 -0.013829057 0.002634139 0.0140310805 0.0033656731 0.016361732 -0.027707523 -0.020869067 0.017051665 -0.010883702 -0.028643785 -0.014714696 -0.020992026 0.03307314
人员规模 -0.0309273 -0.024355218 0.0068796165 -0.016642928 -0.017159821 0.026139855 0.0036487815 -0.016744237 -0.02286423 -0.020626761 -0.027791975 -0.01826314 -0.019092048 -0.009728913 0.009075219
所属地区 0.01745333 0.027059598 -0.025871543 -0.014591046 -0.023280863 0.00073298876 0.022601092 0.00438887 -0.01768342 0.03227659 -0.032492056 0.0188356 0.022882814 -0.007109626 0.025361054
性别 0.026826646 0.020624988 -0.0017627153 0.024533445 0.02597994 0.02263106 0.029216522 0.002301391 0.0068987617 -0.022780368 -0.025680292 0.020090029 -0.0029983763 -0.021861237 0.024313524
年龄 0.009770332 -0.029520836 -0.028465986 0.01274857 0.026373679 -0.0048486493 0.032721065 -0.02827653 0.01125957 0.01739558 -0.004393504 -0.0016147506 -0.00015480917 -0.022726426 0.007189802
籍贯 0.025377637 0.008169029 -0.029350266 -0.029806245 -0.002820241 0.025243549 -0.007070579 0.00084857934 -0.030660074 0.0011112394 -0.0011293597 0.009540845 -0.01765126 -0.006633845 -0.011804437
学历 -0.018311743 -0.03208739 -0.027331095 -0.016369568 -0.003115483 0.009011761 0.030079348 -0.022180624 0.030188575 -0.020173777 -0.0015282911 0.020969335 0.015907275 -0.00847682 0.0014160285
人员指标 -0.004185594 0.023385575 0.029340161 0.014283798 -0.004066613 0.0059716585 -0.027562356 0.006614133 -0.02931183 0.004336628 -0.010562307 0.008307535 -0.02189286 -0.011988659 -0.007559993
人员类型 0.014419187 -0.029674424 0.0051097134 -0.025156585 0.0039179223 0.017262675 -0.023977075 -0.0033321513 0.019137245 0.0071194004 -0.0056747403 -0.010985697 0.021320509 -0.029904041 -0.0016309492
技术能力 -0.020147296 -0.0058037383 -0.028737638 0.014209848 -0.03278443 -0.013424283 0.012574075 0.010227691 0.0128449295 -0.032100078 0.0032682235 0.016399926 0.010756629 0.013877244 -0.013277484
人员学历 0.026242658 0.033017267 0.016508676 -0.005028872 -0.0015721278 0.0009976834 0.008749499 0.016716136 -0.02566207 -0.01713322 -0.008411774 0.021845434 -0.033121966 0.008634004 0.019937577
学历等级 0.02889025 0.005066845 -0.017316466 0.011053196 -0.0056573697 -0.031451534 -0.0035270571 -0.019139433 0.007387432 0.032502074 0.028686674 0.0056215134 0.002791002 0.023203 0.031664494
项目内容 0.017426988 0.0122204 -0.016525455 0.028952202 -0.022690084 0.0046184417 -0.018797107 -0.0028086938 -0.015871286 -0.003329706 -0.030323124 0.009549733 -0.028009757 0.010237014 -0.007692728
是否参与经济实体 0.020093616 -0.018744387 -0.020582357 -0.030801114 -0.004638518 0.0100054005 -0.005883259 0.02342457 -0.020206982 -0.032738995 -0.016767016 -0.029887583 -0.014666081 0.013859659 0.02506658
是否有专利成果 0.024219172 -0.018927485 -0.018503586 -0.02923732 -0.028579902 0.022482628 -0.030902918 0.0021204778 0.009796056 0.022244172 -0.009691612 -0.0022475605 0.004678356 -0.015858684 0.03294507
是否创建创新创业公共服务平台 0.0008696916 0.030781126 0.0153449755 -0.021001533 0.019564174 0.014186083 -0.020505778 -0.028574958 0.019998368 0.029272899 -0.0005015675 -0.0057286145 0.00014757509 -0.016016465 -0.02449082
是否建立示范基地 -0.013731572 -0.0056037917 -0.0019847418 0.0027039822 0.013659433 0.01402954 0.020793809 -0.010692915 0.02743217 0.01659213 0.0036878828 -0.00514592 0.004933457 0.008968746 -0.023626793
主要行业 -0.016510962 0.012918816 0.016137827 0.017531363 -0.0049405815 0.001483454 0.029455878 -0.0062472997 -0.017924493 -0.006962752 0.020259935 -0.026534155 0.028881187 0.025400005 -0.0012080104
企业类别 -0.030821703 -0.011060793 -0.03056538 0.007680771 -0.027505714 0.016393505 -0.0007476968 -0.008868375 -0.004257738 -0.023448106 -0.010423491 -0.014269163 0.032686412 0.014588454 -0.018169109
登记机关 0.0028638064 -0.00082589407 -0.014802243 0.005279314 -0.004997012 0.018306524 -0.015160228 0.010788937 0.026519516 -0.02905644 0.0043041855 0.025079869 -0.01663946 -0.01856973 0.016971441
企业产值 -0.025708532 0.020849839 -0.015889777 -0.031494863 -0.028872589 0.014500747 0.0065515637 0.029252563 -0.0052922065 -0.031220475 0.029543275 -0.008608351 -0.011282919 0.025942944 -0.026133193
年度产值 -0.0070951986 -0.025159262 -0.013666368 -0.006535909 0.00771078 -0.016395664 0.024470117 -0.0072870036 -0.028591074 0.026856216 0.005668245 -0.018044444 0.033091955 -0.018028205 -0.0021458291
季度产值 0.0141386315 0.017408438 -0.0279255 -0.028402247 -0.019092612 0.01112025 -0.03179423 0.02477318 -0.021148656 0.03255784 -0.006988946 0.004775661 0.025752272 0.0327715 0.01677344
月度产值 0.0024004872 0.00793432 0.02582693 0.0062254095 0.0160202 -0.02354681 -0.010360935 0.01810315 -0.0033476863 -0.008338548 0.015752375 -0.025910245 0.028873608 -0.020249335 -0.013170599
产值增长 0.0036132073 -0.012218896 -0.013719704 -0.008484524 0.023089116 0.01524838 -0.013722734 0.0009397082 0.023554694 0.0310319 -0.024405247 0.023192985 -0.026185568 0.027044876 0.024977716
年度产值增长 0.029848646 0.028781408 0.005315877 0.0251418 -0.019483149 0.0067840554 0.02981188 0.01953042 -0.0014890054 -0.017503386 0.0038569502 0.0029745912 0.014900078 -0.008807275 0.012006087
季度产值增长 0.033229873 0.025638374 0.005438573 -0.00846825 0.025234975 -0.00226933 -0.002510044 0.023595486 -0.030066084 -0.0011244724 -0.031741854 0.02758809 0.027144387 -0.026896229 -0.011940783
月度产值增长 0.0054779714 0.0006654493 -0.015439873 0.021120176 -0.019070784 -0.014258883 0.0015267574 -0.007540957 0.031196363 0.010214165 -0.00013377228 0.031060675 0.012418328 0.007477834 0.03122771
企业用电 0.022015624 0.020445874 -0.016683249 0.007687692 -0.023110922 -0.0022443042 0.015044721 0.0077860444 0.001716119 -0.019621545 0.0201897 -0.002986237 0.0186109 -0.00065570587 0.006567305
年度用电 -0.004012033 -0.0037855397 -0.013293688 -0.026907964 -0.02021911 -0.00972837 0.009896448 -0.00036809634 -0.028884958 -0.022332542 -0.029790243 0.02501287 0.0035320357 0.0071001444 0.015505576
季度用电 0.014045271 -0.019301835 -0.010601168 -0.03043958 0.0050542783 -0.03166348 0.030090308 0.011774646 0.01710467 -0.02477973 -0.0010280926 -0.028808331 0.010690183 -0.0062702997 -0.031471435
月度用电 -0.02367265 -0.006453488 0.027960932 -0.0219858 -0.0038550277 0.01585581 0.014871717 -0.02978426 0.031440973 0.024492204 -0.027768664 0.0032735446 -0.026666611 0.02178746 0.011682983
投产纳统时间 -0.021908445 -0.014554827 -0.01752092 0.0076897875 0.0005954683 -0.007845756 -0.030586978 -0.031854894 0.010506448 4.5301073e-05 0.030170511 0.016978737 0.0039584255 0.026103105 0.028343653
企业建设 -0.020616531 -0.02894498 0.029618397 -0.0031678136 -0.030650772 0.027093697 0.030593172 -0.0018031541 0.007341553 0.012075707 0.0098974975 -0.03226303 -0.027227975 0.014651286 -0.032476876
科技孵化器 -0.018348766 0.0023209532 -0.009798909 -0.016393544 -0.028252302 -0.029766522 0.032894775 -0.011233109 -0.02333289 0.030689877 -0.011484462 0.00634393 -0.014463898 0.012098063 0.020679858
国家级科技孵化器 0.026509404 -0.029407643 0.014434745 0.018257558 0.027531154 0.014478999 0.005287693 -0.013297896 -0.010437375 0.025393048 1.7441944e-05 -0.0093213385 0.011306413 -0.006747573 -0.029040804
省级科技孵化器 0.028741132 0.0067826845 0.019695053 0.010660897 -0.03176437 0.018780565 -0.012010687 -0.031239677 0.0071354085 0.016197778 -0.011838991 0.013203052 -0.018307986 0.012760871 -0.007837201
市级科技孵化器 -0.0009545302 0.02317752 -0.006789887 0.0185294 0.026020598 -0.022703573 0.0013166367 -0.031129468 -0.00082111 0.00032343407 -0.014873664 -0.031655192 0.0049859686 0.020049637 -0.032781538
众创空间 -0.009485051 -0.00094761717 0.024126869 0.022131532 -0.0051085753 0.002147672 -0.0011519886 -0.013288062 -0.0077975565 -0.022642242 -0.01833317 -0.0088043 -0.014349265 0.014609168 -0.01930042
省级众创空间 0.0064737815 -0.028205065 0.025070416 0.023883883 0.002503989 -0.022070762 0.023739638 0.0058109364 0.0017221852 -0.02176652 -0.031241937 -0.016333794 0.0012179295 0.02990276 -0.028919054
市级众创空间 0.0140492525 -0.025104098 -0.02473665 -0.021817388 -0.031274356 -0.02442295 0.0034636497 0.007009537 -0.02082108 0.023861924 0.014451234 -0.0062845144 0.026810845 0.0011291675 0.030432947
科技创新平台 -0.008117727 -0.014222512 0.016649049 -0.023633635 0.010453309 0.02843213 0.03089627 0.001818673 -0.031726174 -0.025708947 0.03285765 0.027014378 -0.024952974 -0.01073175 0.014546975
国家级科技创新平台 0.019151352 -0.010367256 0.010425607 0.02979737 0.022997743 -0.019493192 0.0016433406 0.024540862 0.014720209 0.0140989665 0.023058524 0.010826922 -0.0038848543 0.030377341 0.009458464
省级科技创新平台 -0.007024627 -0.0075382697 -0.015591661 0.022666696 0.014668347 0.022078333 0.0003233327 0.009953008 -0.026584601 -0.025641289 0.012200708 -0.016690446 0.019804008 0.00012786883 0.010009995
市级科技创新平台 -0.029401919 0.025758604 0.023763372 -0.014577856 -0.017914243 -0.026579807 -0.0072425622 -0.008619409 -0.0039104815 -0.017743746 0.0041050673 0.009459057 0.019691382 -0.01214179 0.01514407
国家级高新技术企业 0.025025537 -0.0045422884 0.019209009 -0.031842306 -0.008802491 -0.010133656 -0.013313183 -0.025064953 -0.028857544 8.182391e-05 0.02035825 -0.00041100223 0.0076433974 0.0027355202 -0.0065686777
省级高新技术企业 0.02749159 0.0016575863 -0.0037304992 -0.015481818 0.022468084 -0.021223197 -0.02107574 -0.021586478 0.006039572 0.023009447 0.026024358 0.020741416 0.01983346 0.02461052 0.029828774
市级高新技术企业 0.024273178 0.0253544 -0.002294067 -0.018588033 0.0016713205 -0.025709925 0.013437955 -0.03211603 0.0276999 -0.010343733 0.002123165 -0.019759325 0.026628533 0.010680887 0.003528915
缴纳税收 -0.0058175456 -0.026194694 -0.030782046 -0.029276714 -0.021470299 -0.012323214 -0.0073988517 -0.022390818 0.022173395 0.005712029 -0.030453125 0.015743777 0.0038826733 -0.0249983 -0.026347931
国家级高新技术企业入库时间 -0.00093604095 0.00072513724 0.009890368 -0.010019986 0.014847156 -0.011481911 -0.0021802145 0.029254854 0.0007924096 -0.00013289208 -0.011296439 0.0038700015 -0.027071942 0.00977325 -0.028666649
省级高新技术企业入库时间 0.0067085335 0.023221992 0.0056538107 -0.025315253 -0.01162342 -0.018096264 0.021926736 0.02513001 -0.011941824 -0.018559616 0.008237905 0.021692855 0.01096297 0.006338758 0.033144984
市级高新技术企业入库时间 0.026876563 -0.0025156497 0.0013352998 0.016899753 0.028954979 -0.0030661921 -0.003631101 0.0026786644 -0.009863599 -0.0073045962 0.021056231 -0.0104792975 -0.023359278 -0.025208557 0.015461641
创新型企业称号 0.028952118 0.020274406 -0.004981568 0.022895295 -0.008718151 0.013936911 0.0019255448 0.02531645 0.0030856652 0.0010260914 0.010971717 -0.012936426 0.023441637 0.016137267 0.015143339
国家级创新型企业称号 0.008523609 0.015248345 0.030497164 0.0065679285 0.0053477017 -0.013308366 -0.012483846 -0.017583722 -0.0045709186 0.011352924 0.01382164 -0.01782109 0.02539589 -0.02677343 -0.0045419927
省级创新型企业称号 0.015834829 0.014227374 0.0042800456 -0.026585719 -0.004480315 0.0054739104 -0.018612122 -0.00015744196 0.0064501255 -0.0005369547 0.019289847 0.0036320277 0.021621756 0.024064148 -0.003210807
市级创新型企业称号 -0.00048768087 -0.009919485 0.016963542 0.021833317 -0.006753524 0.020789381 -0.021461172 -0.015894527 0.012355721 0.023628386 0.023002747 -0.008966119 0.026184974 0.0024932306 0.024264226
福建省科技小巨人领军企业培育名单 -0.01271067 0.019054363 0.031256706 -0.02162123 -0.032589655 0.016358579 -0.025176095 -0.0065193768 -0.015407574 -0.0070050955 0.017333059 0.008673013 -0.017180005 0.025535686 -0.013458279
科技计划 0.03257346 -0.014778901 -0.030650267 -0.032256007 0.028543295 -0.026473459 0.019211084 0.022029607 0.0049881507 0.025602922 0.018777179 -0.022076782 -0.009236071 -0.020561446 -0.00092333916
国家级科技计划 -0.022604618 -0.023391547 0.0034415007 -0.016579961 -0.028622042 0.0051434403 -0.02776133 -0.02560327 0.0056810547 -0.02199276 -0.02075489 -0.021880263 -0.0063266847 -0.0028366367 0.02132646
省级科技计划 0.010286476 0.024425615 -0.028917907 0.026030833 -0.010568264 0.0065385867 -0.004035932 -0.012213335 -0.009913923 0.001066003 -0.014086644 -0.0070541953 0.0051208185 0.0003422545 0.02033469
市级科技计划 0.018000534 0.008047406 -0.02454958 0.017485427 -0.015801497 0.00033791806 -0.0051213647 -0.0057865954 -0.030512044 -0.01824299 0.013207676 0.01016456 0.02504589 0.017764581 0.011140333
互联网孵化器 0.019199304 -0.028482214 0.009907845 -0.011988195 -0.00089583016 -0.021335479 -0.02373974 0.028790908 0.029607674 0.027570812 0.020074895 -0.008150281 -0.022158487 -0.022922514 0.0048039444
国家级互联网孵化器 0.022679683 -0.02283613 -0.030565504 0.004752896 -0.02886348 0.031959265 -0.026835648 0.022769168 0.023117926 0.024630623 -0.0133416 -0.011076909 -0.026775816 0.009525336 -0.00039830653
省级互联网孵化器 -0.013658494 -0.0010175655 0.0077607343 -0.00015478198 -0.006042367 -0.032355394 0.03130307 -0.01543883 0.005986179 -0.016792402 -0.030894037 -0.0018160639 0.009065582 0.016018873 0.0053297696
市级互联网孵化器 -0.0010937138 0.032658316 -0.029857397 -0.016499022 -0.027181419 -0.008875541 0.0018057779 -0.014933276 0.0048131025 0.0100522125 0.011201722 -0.0048778635 0.011226139 0.01610807 -0.030802445
知识产权 -0.006647382 0.017232388 -0.0135129355 0.020208016 0.0092770085 0.0051847324 -0.0023530584 -0.012870027 -0.009654439 0.022230871 -0.029017897 -0.0034147506 0.008593646 -0.0070386943 -0.020994835
专利申请渠道 -0.0017421956 -0.0017776025 -0.0308648 -0.032444023 -0.016653791 -0.0011964685 -0.009383931 -0.012819457 -0.00040004813 0.0019826684 -0.024289133 0.023633316 -0.032616567 -0.0056934953 -0.011665251
发明专利“清零” -0.0018555544 0.029203126 -0.0016127777 0.020465532 0.0042065824 0.008820584 -0.028384024 0.03104935 -0.0228377 -0.022943145 0.009477543 -0.0042960346 -0.032178607 -0.01466207 0.0059745535
泉州市专利奖 0.021877645 -0.031948544 -0.0066420836 -0.018583633 0.020302841 0.0326195 0.029905582 0.020509431 0.0029245864 0.012077712 0.0008065986 0.013887028 -0.027369395 -0.02428259 -0.030122004
重大发明专利奖 0.0019380007 0.0030577083 0.0028891356 0.0011541105 0.0037663034 -0.006228336 -0.0075883144 -0.0253673 -0.015938345 -0.013114372 -0.017550446 0.011190105 -0.00014110257 -0.004730656 -0.010121329
重大发明一等奖 0.03085285 0.003324853 0.02290982 0.020518787 -0.026344607 0.00887125 0.011610414 0.0188744 -0.010823776 0.014416367 0.026433717 0.008927974 -0.02981802 0.003891679 -0.022726987
重大发明二等奖 -0.028348172 -0.002890093 0.024371123 0.025681654 -0.025575133 -0.015098691 0.009678029 -0.007620613 -0.028429648 0.017886724 -0.022629853 -0.0209502 -0.0036382892 0.028262502 -0.011052377
重大发明三等奖 0.020440632 0.0022785615 0.008519063 -0.02302743 0.0039709634 -0.027413419 0.019112041 -0.011988166 0.0013135254 0.0063861604 0.012452959 0.016019896 0.012317866 -0.008565795 0.012560945
质押贷款 0.008691832 -0.0038086623 -0.012980181 -0.030657656 -0.010480997 -0.02208371 0.02462718 -0.019950157 -0.008209957 0.018639926 0.0035395944 0.017693171 -0.024239149 0.01827466 -0.027257662
专利权质押贷款 -0.013564059 -0.012759948 0.030965718 -0.01151724 -0.0067959037 -0.031223698 0.008618458 -0.012976134 -0.008634441 0.021938942 0.026203603 0.010207328 0.017494297 -0.02139262 -0.0058814036
专利保险 0.0042805676 0.014741738 0.020597855 -0.004460295 -0.021863323 0.009051015 -0.007134766 0.013689659 0.008142956 0.024366925 0.023212142 -0.014850052 -0.02468322 0.018685529 -0.026479892
购买专利技术 -0.014283905 0.01761321 -0.013822408 0.007305175 0.015049031 0.0072697187 -0.008678303 0.027440852 -0.009273395 0.01881588 0.00031332963 0.013339334 0.03146654 -0.014665293 -0.030825239
知识产权示范企业 0.028810326 -0.023242705 0.025019322 0.017292159 0.014971739 0.0045908405 -0.01952139 0.010185724 0.00302235 0.010693026 0.011913398 0.023407662 0.023028534 0.033157997 -0.0065320693
知识产权优势企业 -0.01553672 -0.0012939486 -0.018942147 0.015119646 0.008517458 -0.030360626 -0.014315091 0.012989287 0.000528999 -0.015333338 0.0008519193 0.0038741298 0.009544971 -0.028856503 -0.01824578
国家级知识产权示范企业 -0.00086664315 0.02694834 0.009748797 -0.023946732 0.008271155 0.024960076 -0.023165507 -0.03232116 0.022777634 0.032887723 -0.02136805 0.008891878 -0.027186127 0.032233987 0.010128614
省级知识产权示范企业 -0.028630741 -0.012668768 -0.023738217 0.009474948 0.014430198 0.028857104 0.006114356 0.03305061 -0.00034944495 -0.012488426 0.0053278287 0.016067417 -0.011697135 0.031484652 0.007211975
市级知识产权示范企业 -0.021307053 0.012276311 -0.013761802 -0.021456324 0.02435373 -0.023497494 0.017867675 -0.032382242 -0.017709512 -0.0058504064 -0.025604285 0.026795277 -0.024693897 -0.0028816792 0.011283963
县级知识产权示范企业 0.008749097 -0.018816028 -0.009963322 0.0075786095 0.02670758 -0.012630344 -0.023455532 0.0060950285 0.018687773 0.025345799 -0.019526394 0.027299529 -0.0062582092 0.03130609 0.029746022
国家级知识产权优势企业 -0.0011699696 -0.032097287 -0.021147104 0.02128011 0.03255678 0.0024154044 -0.0065576965 0.0022842917 0.025830807 -0.027305255 0.021461042 0.008372688 0.026597148 0.008696052 -0.02597326
省级知识产权优势企业 0.004826188 0.023663973 0.00078170624 -0.010280251 -0.028630381 -0.0065256045 0.017166335 -0.030158008 -0.005810206 0.024682663 0.0029229769 0.026560796 -0.0323151 -0.016304465 0.022617817
市级知识产权优势企业 0.019328386 -0.0017162067 -0.01356191 -0.00810668 0.031432703 0.020534594 -0.0064813974 0.021543706 0.009525958 -0.01005144 -0.009641305 0.003312402 -0.0050793304 -0.005705225 -0.023913275
县级知识产权优势企业 0.017470198 -0.0054002525 -0.0015666345 -0.0243381 -0.014228533 0.024936548 0.013339903 -0.026755549 0.0025347918 -0.0021943192 0.027053315 0.027825722 0.011897502 0.028363014 -0.010807238
知识产权服务品牌机构培育单位 0.010872957 0.03276917 -0.028139742 0.027425399 -0.028447347 -0.019605393 0.02444079 0.029193245 0.016863568 -0.016016241 -0.015160739 0.019704225 0.0022992871 0.018395644 0.02594304
国家级知识产权服务品牌机构培育单位 0.008385244 -0.009799899 0.010574511 0.012154241 -0.007782497 -0.0051019522 -0.0018320051 -0.032700103 0.021697642 -0.025985165 0.022531882 0.017131805 0.023988796 -0.012261306 0.022171741
省级知识产权服务品牌机构培育单位 -0.014910576 -0.019018361 0.0024781881 -0.03227952 0.010520833 -0.004025413 0.0054647564 0.030000854 -0.026225375 0.005944132 0.02414054 -0.004142749 -0.02814524 -0.0066616437 0.03291109
市级知识产权服务品牌机构培育单位 7.072255e-05 -0.021599947 0.021448905 0.0069598397 -0.026314748 0.020176077 -0.00059008744 -0.0042532757 0.0148539 0.00283291 -0.00780272 0.016299635 0.007683837 0.021721058 0.01282738
知识产权服务品牌机构 -0.0034973 -0.01955108 0.010472442 -0.014798974 -0.029026499 -0.016335458 0.024735907 0.009140551 -0.012348382 0.010161011 0.008971278 -0.027651267 0.012669331 -0.021125577 -0.008406325
国家级知识产权服务品牌机构 0.0008741917 -0.030951353 0.020982912 -0.016568217 -0.013584916 -0.011900129 -0.0054525384 -0.03253201 -0.0032730987 0.021283612 -0.031957872 -0.0144032715 -0.010087419 -0.015446669 -0.0029991888
省级知识产权服务品牌机构 -0.01944002 0.00841997 0.029626776 0.029331384 -0.006342929 0.018602466 0.009033209 0.020011252 -0.02044337 0.024111122 -0.026529882 -0.005076887 -0.0057656346 0.00089872663 0.028584491
市级知识产权服务品牌机构 -0.0031395652 0.031651124 -0.011224709 -0.03194201 0.030474348 -0.03205512 -0.0049558254 0.020694606 -0.017122958 0.0084309 -0.017396066 -0.014560528 0.011747104 0.025524788 0.015025281
《企业知识产权管理规范》标准认证 -0.009081105 -0.01573992 -0.004399355 -0.016564252 -0.016405571 -0.0016055212 -0.015590437 0.026846142 0.024583433 0.0004860577 0.009535521 -0.0038334897 0.026804423 -0.012948404 0.012362513
挂牌上市 0.0075640385 0.032220073 0.030888828 0.002054491 -0.029824471 -0.02769227 -0.004860443 0.026093192 0.016914612 -0.03328915 -0.023882816 -0.0027744793 0.0036295871 0.014767207 -0.0011558842
福建证监局辅导备案 0.021740122 -0.023743745 -0.010069035 0.00086400606 0.032974206 -0.0021541945 0.01864469 -0.00060632656 -0.0018214404 -0.0117146345 0.022329291 0.004717991 0.013902116 0.0027340376 -0.03221933
上市 -0.029999297 -0.03218185 0.023605602 0.016619632 -0.016023092 0.010862433 0.029815966 -0.0076637585 -0.011882105 0.022770723 -0.0016907657 0.020513553 -0.024797957 -0.018509757 0.005915598
上市募集资金 0.0037293963 0.029605858 -0.032316558 0.016413726 -0.016443105 -0.012236409 -0.016777912 0.013081632 0.024114603 0.0050712377 -0.0043838006 -0.01904806 0.00794149 0.030473333 -0.021536335
募集资金投资区域 -0.032164566 0.005883513 -0.014255421 0.028593484 0.0031011766 -0.0024885228 -0.01107023 -0.028542079 -0.00041638582 -0.01048819 -0.006402987 0.029496206 0.010042124 0.0128634935 -0.00012378916
募集资金投资金额 0.016547192 0.031324685 0.008558346 -0.0036201258 -0.010555901 -0.024767118 -0.018073166 -0.009432229 0.019288192 0.012867252 0.022616124 0.027782546 -0.01452228 -0.018409392 -0.006343425
募集资金投资比例 0.032531854 0.018170707 -0.0100816535 -0.02469776 -0.01598122 0.0077441935 0.021471491 0.026947787 0.014866542 0.016828572 0.030613974 0.005285741 -0.026926577 -0.016548902 -0.03038346
境外上市外资股申报 -0.024927175 -0.03280934 -6.6232256e-05 -0.011101539 -0.0073194155 -0.024990862 -0.02405681 0.017604781 -0.022496385 0.02748394 -0.01723284 -0.026350923 0.002164615 0.031045353 0.026004232
境外上市 0.023012057 -0.021881063 0.021972492 0.0025494026 -0.015862845 -0.023572845 -0.028069194 0.013206161 -0.009188229 -0.019513536 0.020543056 -0.019965583 -0.019327406 -0.030647963 -0.03313873
上市公司注册地 0.027951201 0.0053797006 -0.021769436 -0.005648636 0.0037022159 0.012434987 0.0021382505 -0.013648659 -0.020129057 -0.030142557 0.024818629 -0.018835412 -0.010223676 -0.028226258 -0.0029312985
“新三板”挂牌 -0.02578656 -0.008381502 -0.022851514 0.02816457 0.028645618 -0.007947079 -0.033040073 -0.00085475383 0.012856804 -0.00377979 -0.018801406 -0.013694983 0.020419214 -0.011279486 0.025414191
海峡股权泉州交易中心交易板挂牌 0.0074059516 0.0032001294 -0.023888437 -0.029223038 -0.012318267 -0.0064377864 0.029710552 0.020900255 -0.014113344 -0.006567427 -0.0037204265 0.018821215 -0.015399804 0.009546266 0.011879157
创新示范企业 0.014296839 -0.01714731 0.01628286 -0.012920638 0.012964714 -0.018423159 0.013744403 -0.021961672 0.012716941 -0.025218513 -0.008900694 0.0055689225 0.0030006343 0.030607166 0.0037586472
国家级创新示范企业 -0.001976834 0.029840818 0.025971431 -0.018477792 0.016142767 0.0071131815 -0.02812905 0.0015428781 0.013602173 -0.0009447353 -0.017551256 -0.0024621675 -0.017894465 0.021287465 -0.01657106
省级创新示范企业 -0.023088146 0.021491745 0.009025954 0.014423285 0.00703668 0.023676667 0.014096532 0.02582194 0.0038704297 0.0071829837 -0.020451818 -0.019352982 0.028466849 -0.019554725 -0.0011986282
市级创新示范企业 0.0073212134 -0.003034103 -0.013275152 0.024431603 0.012497047 0.018108252 0.003518502 0.016179211 -0.014684557 -0.012247977 -0.030489966 -0.003257886 -0.0133528495 -0.028168568 0.0017555393
区级创新示范企业 -0.017175652 -0.029620623 0.029790714 0.028285624 0.014212721 -0.0016816299 0.006305642 -0.024831396 -0.0075293966 -0.015431982 0.009692034 0.0075789266 0.016164828 0.0164289 0.027509231
境外分支机构 0.03311985 0.0028716582 -0.003169999 0.019252235 0.032759145 -0.0052940687 -0.015854564 0.007892392 0.0034902713 -0.029844616 0.0068727364 -0.015911235 -0.024818148 0.012110345 -0.0017229248
国际商标注册 -0.022235231 0.0066842595 0.012032426 -0.0029745288 0.032016795 0.007909891 0.026234068 -0.003985683 -0.021690072 0.008143253 0.025905084 -0.018913869 -0.022301966 -0.014723611 -0.0168208
国际相关 -0.021403562 -0.0025274681 -0.020808937 -0.030981371 0.005420346 -0.014810752 -0.0030303618 -0.010157053 -0.0052888454 0.0082455315 0.03249523 -0.0029974615 0.007090741 0.0036091886 0.009194551
展销会 0.030552907 -0.021711161 0.013988156 0.023142435 0.02674682 0.017445711 0.026306758 -0.011811516 0.022406975 0.0013903031 0.027197966 -0.008476863 -0.0031916264 -0.023760086 -0.018279871
国外展销会 -0.019420782 0.022893662 0.013020292 -0.008003852 0.01634577 0.011999994 0.0041769976 -0.009118372 -0.007895897 0.0073396293 0.00070293003 -0.018163681 0.032048006 -0.022543475 0.006274186
国内展销会 -0.004036737 -0.0075437687 0.013892165 0.019556023 0.020034824 0.011076947 0.023187794 0.01154393 0.010145769 0.0043545323 0.029753076 -0.008829548 0.017572775 0.005172883 -0.0006284879
中国专利奖 0.020328257 0.0068674698 -0.021319358 -0.015566514 0.017832715 0.027346594 -0.023982374 0.014579979 0.0072286394 -0.009231021 0.0075877444 -0.0038580464 -0.015113705 -0.00072661636 0.010404293
中国专利金奖 -0.02951368 0.0067689763 -0.0065713096 0.0015692948 -0.027279662 -0.0121436715 0.025096104 -0.004350523 -0.008611192 0.018774023 -0.015441537 -0.0116505185 0.020465814 0.0032540264 0.008335863
中国专利优秀奖 0.006216604 0.024818039 -0.028646773 -0.030347545 0.011714428 -0.0036082237 0.008635761 0.0085479 0.020542903 -0.021547118 0.021660967 0.023259249 0.014852618 -0.024289316 0.018399963
中国外观设计奖 0.031224584 -0.016826876 0.027149972 -0.02740749 0.01391607 -0.013234517 -0.004905519 -0.03255011 -0.00030740682 0.023758667 0.014848252 0.029387675 -0.016437665 0.003454314 0.022638675
中国外观设计金奖 -0.01738947 0.0021356237 0.0076980693 -0.0109079415 -0.0057553467 -0.020974623 -0.012547497 -0.011602016 -0.026327513 0.0078101326 -0.0069226115 -0.015842142 -0.014203108 -0.033167813 -0.01860115
中国外观设计优秀奖 -0.012186201 0.008749968 0.02985453 0.024874246 0.030429391 0.010668729 -0.012352596 0.0076077078 -0.02819677 0.019284602 -0.021593591 0.0002320504 -0.010575727 -0.01310496 0.021719791
福建省专利奖 -0.03107377 -0.028028507 -0.028304227 -0.009899642 -0.006213789 -0.02233252 -0.0037476197 0.009660214 0.0040582563 -0.031387635 0.025410242 0.008201281 -0.020763384 -0.004079569 0.020456461
福建省专利奖特等奖 -0.010232624 0.03257629 -0.018574335 0.0062091444 0.029310672 -0.008991862 0.012621336 0.0064624613 -0.019354476 -0.004472812 -0.030773183 0.00912853 0.007378599 -0.022877794 -0.00089914637
福建省专利奖一等奖 0.032918513 -0.010014044 0.0008391292 -0.022565797 0.00072567223 0.031186484 0.013957824 -0.011683188 0.02322047 0.0041302303 0.025782255 -0.011493075 -0.019030726 0.0290792 -0.0003272832
福建省专利奖二等奖 -0.012057474 -0.01577929 -0.028894018 0.002098043 -0.031968154 0.030696876 -0.009867863 0.024328077 0.015778426 -0.016084636 -0.027741801 0.026068995 -0.028758202 0.015440072 -0.010314013
福建省专利奖三等奖 0.017528482 0.021336336 0.007966336 -0.008112161 0.024994401 0.009802856 0.021745903 0.027299235 -0.0013749754 -0.010205855 -0.011173604 -0.017068237 0.005505661 -0.014282647 0.005101198
知识产权试点企业 -0.028462198 0.0058362847 0.016130155 0.008297726 0.02193035 -0.006114609 0.025477475 0.0033049798 -0.031587377 0.011240057 0.02645509 -0.00313919 -0.031053012 0.011371808 0.026365934
国家级知识产权试点企业 0.01770343 0.016916865 0.0038870545 -0.030673364 0.00034221914 0.003030753 -0.027939796 0.0032205917 0.006711757 0.015631324 0.0035566436 -0.010514536 -0.030883754 -0.012819207 -0.020779958
省级知识产权试点企业 -0.018387338 -0.03084802 0.01411027 -0.02245105 0.009209795 0.027349561 -0.023593856 0.026592512 0.0007272877 0.027352236 0.006558531 0.013148368 0.019811997 -0.012760395 0.029876452
市级知识产权试点企业 -0.0040879147 -0.026681118 -0.02957048 0.029272443 -0.0032393613 0.0009663895 -0.029632531 0.028637799 0.027765252 0.0020851772 0.017795753 -0.022397766 -0.0074085174 -0.015683169 -0.0041851527
年度纳税额 -0.019708574 -0.029819855 0.028355327 -0.01058603 -0.0331063 0.010179991 -0.015697254 0.01666677 0.024328642 -0.021118231 -0.016532859 -0.030021515 0.00041291624 0.021610674 0.0049872035
增幅 0.03070766 -0.002867668 0.0017245982 0.02944018 -0.009963122 0.0024711736 -0.019236768 -0.012155904 0.009202275 -0.030754648 -0.012981505 0.02986114 0.031122606 0.031286966 0.0064147445
陶瓷机械生产 -0.011227517 -0.020084182 0.0034359458 0.025044985 -0.020953646 0.014510443 -0.018421303 -0.03292162 -0.018557984 0.020294799 -0.00040018777 0.03308717 0.029031124 0.002773847 -0.022798438
电子商务 0.033169147 0.013052852 -0.01227938 -0.006524916 0.006699772 0.02919083 -0.024456853 0.018798573 -0.015383045 -0.026435023 0.0043950477 -0.0030636804 -0.023571279 0.017074613 -0.017051112
上线企业提供持续运营 -0.026142737 0.032336116 -0.00073875446 0.012549547 0.0013401519 0.030728612 0.024438623 -0.025002029 0.03131197 -0.016940463 0.02853373 -0.0042202263 0.027249044 0.018100917 0.012997668
入驻平台企业总销售额首年突破10亿元 -0.0002797342 0.013116545 -0.026747009 -0.015050182 0.009939212 -0.018435445 -0.017014476 -0.004108187 0.025817527 0.025789788 0.018101662 0.03131766 -0.0078095673 -0.013416921 0.028741432
网上年销售额 0.024576943 -0.011342369 0.02156597 0.0043315208 0.023171939 -0.01343238 -0.028674135 -0.009418418 0.031950388 -0.0052016736 -0.01971085 0.014672058 -0.008091974 -0.019866401 -0.02090346
电子商务产业园 0.032580465 0.019493746 -0.019436477 -0.005464516 -0.029304085 -0.010596058 -0.009968843 0.014411213 -0.007929638 -0.009829115 -0.0071528573 -0.018131383 -0.015685907 -0.028612668 -0.024335228
国家级电子商务产业园 0.03091895 0.002075462 0.028210124 8.286988e-05 -0.028706208 0.02400882 -0.03149665 -0.01716274 0.033144187 0.013492017 -0.009064272 0.029420137 -0.030794285 -0.01592346 0.021159546
省级电子商务产业园 0.030263647 -0.029476868 -0.028084537 0.012008463 -0.011623833 0.030356225 0.028482322 -0.024206327 0.0047954083 -0.0008967789 0.013985748 -0.0028158498 0.020321993 0.03269719 -0.031161577
市级电子商务产业园 -0.00832931 0.007255176 -0.01780102 0.005758226 0.0162769 0.02947138 0.012123816 0.028704427 0.029456994 0.02444814 -0.01996236 -0.027888305 -0.020971403 0.0036673723 0.0039516296
区级电子商务产业园 0.02262681 -0.0012705757 -0.0018291523 -0.0032276793 0.013955849 -0.014536082 -0.023247099 0.0104221385 -0.032531336 0.0013082022 0.020047667 0.023084782 -0.022151893 -0.013150796 -0.031862553
年交易额 -0.026040055 -0.031775303 0.011099245 0.0075903307 -0.0132909445 0.018108547 0.0059249457 -0.004864346 0.032764 0.0036340132 0.019993681 -0.016451156 -0.026463106 -0.0035023254 0.013956585
电子商务示范基地 -0.01480419 0.0281722 -0.01663451 -0.018345034 -0.018823082 0.025338158 -0.024604755 -0.00152854 0.01578437 0.012532915 0.009182473 -0.021992924 0.020272668 -0.0019916578 -0.018254265
国家电子商务示范基地 -0.009935063 0.019305127 -0.00026297034 -0.007713752 0.020485178 -0.014284416 0.023539877 -0.014284578 -0.0008698797 0.009216997 -0.0038960834 -0.031902876 -0.028713629 -0.006170949 0.020442445
省级电子商务示范基地 -0.010496006 0.005009036 -0.0011995252 -0.003972875 -0.011791317 0.032827314 -0.022378631 -0.031352658 0.025461983 -0.0070948545 -0.01437556 -0.020994557 0.024201134 -0.0016849998 0.027030146
市级电子商务示范基地 0.03017823 -0.025378574 0.0010303507 0.015913982 -0.007673507 0.0050201714 -0.006884447 -0.026904827 -0.032944996 -0.022344358 0.011114838 0.0071081105 0.02310309 -0.0021905876 0.030919103
年度物流费 0.03023669 0.012063916 0.006458009 0.03194037 0.007909465 -0.020723386 0.014087548 -0.031444587 -0.02995795 -0.012671471 -0.030345658 -0.012935736 0.02756666 -0.011665847 0.006761725
租赁仓储面积 0.030215295 -0.0018459092 -0.021047104 0.031743925 0.010445017 -0.011160072 -0.005948786 0.021759303 0.029598814 0.011959328 0.031464297 0.0059718015 -0.012904803 -0.0071001383 0.01936234
国内租赁仓储面积 0.0295325 -0.01983001 0.027494319 0.019851921 0.015283373 -0.00411938 0.028996078 0.007948886 0.0077155037 0.01909531 0.014067776 -0.012498889 0.0025675371 -0.033029325 0.019506885
国外租赁仓储面积 0.007212455 0.0129020205 -0.0077776723 -0.0036050999 -0.006183497 0.010818496 0.0022710497 -0.017426407 -0.032090474 0.027833803 -0.016391668 -0.0044080685 0.018267438 -0.024987284 0.022280712
自主建设仓储面积 0.028346116 0.001701317 0.026993584 0.0044425894 -0.0072611845 0.028116604 0.015209588 0.008216953 -0.021174643 -0.015127946 0.018282589 0.031516057 0.005454084 -0.02765264 0.03196022
国内自主建设仓储面积 0.021840738 -0.012851082 -0.024471618 0.0095719695 0.002010018 -0.025942614 0.013901984 0.016342167 0.01752966 -0.030698352 0.0014057314 0.03311681 0.0046740873 -0.001021189 -0.025732538
国外自主建设仓储面积 -0.020745678 0.001398479 0.00056148664 -0.028623832 -0.0049754437 0.018573921 0.032766018 0.020344818 -0.017737903 0.0076065413 0.0030811583 -0.03150219 -0.00081772817 -0.023334023 -0.030973917
年实际投资额 -0.026538609 -0.015806543 0.020349408 0.009218228 0.011491283 -0.008854645 -0.007431272 -0.021393545 -0.023632756 -0.022252297 -0.008783538 0.016816163 -0.023231553 0.016238516 0.00601418
独立法人 0.025544086 0.0020352255 0.009212348 0.015136529 -0.011636341 -0.021676835 0.03162955 0.033175673 0.020878378 0.029686937 0.03149417 -0.00080379104 0.021275401 -0.024191372 0.0060480195
区独立法人 0.03293297 -0.017942334 0.0028607785 -0.0024009747 -0.02118313 -0.0027131136 -0.0098389005 0.029405681 0.02923906 -0.026826246 -0.00380339 0.028314382 -0.031478543 0.028140627 -0.017053321
独立核算 0.008356548 -0.012768328 0.031634327 -0.023314316 0.033034835 -0.01747305 0.02702929 -0.03261785 -9.316343e-05 0.024476599 0.018291064 -0.008407331 -0.026173241 -0.03318551 -0.017433295
区独立核算 -0.025196617 -0.012223372 -0.030155765 0.020458972 0.020828353 -0.031792168 -0.0077265515 0.027247619 0.020896934 0.008759356 0.011737945 0.01797844 -0.013611694 0.02145472 -0.016687533
年合同金额 -0.009424588 -0.01287094 -0.029483646 0.018080449 -0.030194059 0.011829076 -0.0050434414 -0.013083842 -0.011873417 0.028572766 -0.0023100607 -0.02275203 0.0145253185 0.029251985 -0.03211131
人民银行《支付业务许可证》 0.00471365 -0.020908892 0.016516382 -0.0056936173 -0.003279165 0.0134121245 -0.00785487 0.0124880085 0.01870491 0.010529469 -0.0021680316 -0.015397551 -0.010169953 -0.032424722 -0.012029021
企业总部 -0.006462014 0.016286846 -0.029317126 0.019931177 -0.023898678 0.0017311533 0.030491935 -0.014166865 -0.025299711 -0.01917463 0.014806758 0.0009272564 -0.022629991 0.00072692265 -0.008334277
企业总部所属省 0.02096198 -0.0069393576 -0.030104157 0.018149918 0.014956058 -0.030225785 -0.01691866 0.00041137214 0.03056345 0.03078381 0.03074874 -0.011383875 0.010611658 -0.0036835624 -0.0061257477
企业总部所属市 -0.00610859 -0.032730784 0.022186879 -0.016878536 -0.029218959 0.028546704 -0.008083278 0.0006759892 -0.003215474 -0.03001343 -0.00976207 -0.021994527 0.0117130475 -0.024562057 0.030762162
企业总部所属县 0.024452528 0.031084139 0.026294518 -0.030248633 0.0066447654 0.00022712746 -0.023029342 -0.031974286 -0.031143354 -0.018874262 0.01833476 0.01996256 0.0021863293 -0.029632427 0.016860755
总部职能型 -0.019059073 0.013648291 0.022062708 0.033282544 0.012394215 -0.004145648 0.0014761849 -0.009300536 0.01095221 0.019101776 -0.027512515 -0.018474197 -0.0142903915 0.023500491 -0.019787928
综合型总部 -0.023340331 0.010092964 -0.018765295 0.020769222 0.0010482213 0.008626446 0.0029430247 -0.018208822 0.03162649 0.015329663 -0.032009277 0.024213307 0.032101598 0.0063231234 -0.007318163
销售中心型总部 0.010648628 0.0059368378 -0.030710636 0.020568265 -0.00025675376 -0.005092667 -0.027391655 -0.016493808 0.0061806007 0.03269773 -0.028001912 0.025610281 -0.0014213506 0.017039156 0.0066648466
运营中心型总部 0.011775154 0.01963823 -0.029350862 -0.013032857 0.017723622 0.020572629 0.011858039 -0.019330695 -0.005437962 0.021419317 -0.0052826116 -0.010859767 0.0046865568 -0.02182132 -0.026949473
研发中心型总部 0.0022278773 0.0136804795 0.009463858 -0.008538521 0.011772034 -0.0050145336 -0.011878292 -0.03303373 -0.0052941586 -0.025606006 -0.026608063 0.026586605 0.018006798 -0.020864444 0.012769252
规模以上的企业 -0.014272866 0.005542142 0.014802138 -0.028695673 0.010124142 -0.028068889 -0.028492965 0.0039219046 -0.01123294 -0.02136493 -0.021415196 0.030556943 -0.0225915 0.005488757 0.029104946
工业 0.026572704 0.024642747 0.032729328 -0.03057212 -0.019079773 0.0048488276 0.02911086 0.023643347 -0.023785457 -0.032931708 0.010786554 -0.00628948 -0.0010600127 0.0076401685 -0.023149721
企业费用支出 0.024296202 0.009423843 -0.013964574 -0.030716764 -0.027716937 0.022737937 -0.032781262 0.021165464 -0.009281399 -0.02741571 -0.004492787 -0.018337822 0.0032071578 0.021253344 0.026653105
购置生产线 -0.025272442 0.024009366 0.0007433345 -0.021702595 0.008826766 0.0067429114 -0.021579884 -0.008903351 -0.019467436 -0.026196962 -0.023161154 0.010160862 0.0050714444 0.031548362 0.01930389
研发专利产品 -0.02709895 -0.0010034101 0.001575723 -0.017134812 -0.0069958284 0.009368109 0.0044385158 9.529374e-05 -0.013535563 -0.032358553 -0.028290117 0.026059931 -0.011312885 -0.009727814 0.0240272
国内首台（套） 0.016717734 -0.0022291744 0.0014993859 -0.03233643 -0.010351194 0.030824859 0.030683609 0.030783288 0.024971372 0.011850918 0.026157385 0.021845816 -0.011992406 -0.029347457 0.0058172005
省内首台（套） 0.021108007 -0.011284805 0.02323355 -0.017994007 -0.0033805657 0.008413357 0.0025061595 0.016158508 0.01184034 0.032592 0.018951923 0.00072341866 -0.011980115 0.020424634 -0.026116513
市内首台（套） 0.025150409 0.029792672 -0.028384158 0.03312461 0.010498006 -0.028082073 -0.020148808 0.017929383 -0.017480131 -0.017855473 0.015097398 0.029925205 -0.007594398 0.028029874 -0.018398197
智能制造试点示范企业 0.010378259 0.01412087 -0.030570429 -0.027772224 0.011980403 -0.032379076 0.005618623 0.016472323 0.03203047 -0.019641249 -0.028383411 -0.01211169 0.027929507 0.016511621 0.018496368
国家智能制造试点示范企业 0.027961336 0.010658314 0.0033406175 -0.019454243 -0.008960335 0.027087402 -0.025398737 -0.032911196 -0.03061551 -0.0009929892 0.009998836 0.002833049 -0.0053826687 -0.014143793 -0.03198871
省级智能制造试点示范企业 -0.024793575 0.011288734 0.0134448735 -0.0050516548 0.000337097 0.004554922 0.0038963929 0.031465933 0.021368742 -0.0021835843 0.02295989 -0.022454176 -0.00031056313 0.024273891 0.028933626
专利认定层级 -0.007898145 -0.024903987 0.03171671 0.019023046 -0.024354283 -0.015703244 0.023530487 -0.029618159 0.026957178 0.028607298 0.016364748 -0.005950896 -0.0206511 0.016709246 0.026896311
经省认定 -0.018736748 0.0007049576 -0.022193212 0.026509587 0.028197223 -0.023137014 -0.009558252 0.016848817 -0.020668676 -0.022279322 0.009037451 0.0131812645 -0.0022717365 -0.028552601 -0.009952076
经市认定 0.014527125 -0.016335767 0.0024554045 -0.03116176 -0.021955704 -0.0005320853 0.007966734 0.023599949 0.018836597 -0.019351268 -0.02543092 -0.01245435 0.032197986 0.022617564 -0.031997625
数字化平台 0.0059388774 0.001693626 -0.025432324 -0.032087438 0.029837314 -0.009247036 0.0073188157 -0.028583502 -0.025225125 0.022154491 0.025636716 -0.0159234 0.008691716 -0.0083098095 -0.02505023
市级科研院所 -0.0074204397 -0.030442648 0.011274457 0.020103607 0.016047195 -0.011626315 0.03146075 0.017239787 0.0015897712 0.011569848 -0.007298151 -0.01124371 -0.0150824785 0.017478459 -0.020102594
智能制造技术研发 0.032753974 0.028597549 0.03283485 0.0071162144 0.015246384 0.009697624 0.027215328 0.019597309 -0.016057476 0.0020118894 0.0051253233 0.017848881 0.011775122 0.013723293 -0.027682893
服务型制造转型示范企业 0.010538466 -0.019029485 0.013653851 -0.013930688 -0.024105722 -0.026542773 -0.03126414 0.007481554 -0.029118791 -0.001051523 0.009345019 0.021876438 -0.015858922 -0.025528513 0.0070884414
省级服务型制造转型示范企业 0.029230341 -0.029017085 -0.009228576 0.019955933 0.010339429 -0.0045019747 0.025945675 0.01108066 -0.025849948 -0.023794154 0.00839591 -0.017491024 -0.023361765 0.0061135017 -0.00081698224
市级服务型制造转型示范企业 0.01746466 0.03271246 0.012414996 0.00077912404 -0.003759357 -0.009989252 -0.013042199 0.027971223 0.022255875 0.01869489 0.013578441 -0.013024501 0.009654267 0.006512238 -0.00040349856
民参军技术与产品推荐目录 -0.011566097 -0.021954102 -0.015229271 0.02812866 0.020494074 -0.03179471 0.007610576 0.013669205 0.010136088 0.0036490606 -0.029000077 -0.006773291 0.022589996 -0.016773399 0.018120289
创业园 -0.0051498115 -0.01984116 -0.0038099173 0.015465889 -0.013814826 0.025362918 0.003142321 0.0021942093 -0.0271667 -0.00019138667 0.015284082 -0.0010378213 -0.0034732665 0.007805074 0.016156502
国家级创业园 -0.025238987 0.016477864 0.0045251534 0.024213765 -0.005395293 0.012861764 0.017764725 0.015241785 0.029515931 0.008201382 -0.004907177 0.010498522 0.015932465 0.02574519 0.0134867
省级创业园 -0.021215264 0.027875999 -0.0047769775 0.019735092 0.0040178737 0.018180348 0.01588624 -0.007052155 -0.014271744 -0.0037577485 0.024407072 0.02787032 0.018290218 -0.027785638 0.007914664
创业基地 0.009806303 -0.016204223 0.025053056 0.023318226 -0.016906345 -0.01318521 -0.01970688 -0.020126032 0.031334545 0.0020055005 -0.030565606 -0.022156643 -0.00062462594 0.017920876 -0.025709106
国家级创业基地 0.024103375 0.013439777 0.016331932 -0.01729565 0.019366851 0.02746415 -0.03186394 0.00936768 -0.032185387 0.00647217 0.016427172 -0.031575896 0.013237833 -0.030192375 0.029388627
省级创业基地 0.02446866 0.021951541 0.028381327 -0.032709673 0.008787259 0.01924251 -0.0006186328 -0.018196397 -0.025964353 -0.025494289 -0.027526066 0.029807096 0.025451189 -0.0024611242 -0.018120384
企业技术中心 0.02222794 0.020880688 -0.011367638 0.027892716 -0.0026447172 0.0049172514 -0.0041609975 -0.022973295 -0.014158617 0.030938307 0.009694709 0.016550474 0.0023612815 -0.013956653 0.026349004
国家级企业技术中心 0.010582287 0.027062465 -0.016370034 -0.028607538 -0.016449297 0.0040434026 0.019234149 0.00275008 -0.012945252 -0.009229494 0.0073394626 0.01782759 -0.021600492 -5.9306512e-06 0.030397361
省级企业技术中心 0.030335674 -0.023241336 0.023168322 0.013725575 -0.026527198 -0.02115363 0.018594773 0.025689812 -0.022689063 0.01967291 0.023422057 0.009788928 0.032623064 -0.010434129 -0.012835437
市级企业技术中心 -0.017078515 -0.0049480665 -0.020254858 0.007517635 -0.004586625 -0.028879128 0.029984416 -0.0061510117 -0.013427197 -0.028644793 0.03149096 0.014935072 -0.018917933 -0.026216038 0.003709067
工程研究中心 0.011655944 -0.0002666476 -0.013953495 -0.027271008 -0.022525065 -0.009880424 0.022151954 -0.023841988 -0.030360296 0.02605852 -0.031861104 -0.0103939185 0.015671555 0.023921039 0.00014636244
国家级工程研究中心 -0.00799133 0.02765555 -0.010093306 -0.0054120133 -0.021192502 -0.0330972 -0.023497578 0.00770409 0.015009655 0.028139971 0.003249787 0.008090818 0.002073865 0.020418976 -9.7024604e-05
省级工程研究中心 -0.018559322 -0.0046130526 -0.012059919 -0.029045347 0.0041939197 -0.010599345 0.005397001 -0.01566184 -0.013227712 -0.027370343 -0.02326394 -0.011274735 0.0053038644 -0.00878882 -0.031628057
参加展会 -0.01441487 -0.029859439 0.0045740763 -0.0029004642 -0.00089411566 0.026876938 -0.017842257 0.019592036 0.029867461 0.020663517 0.0044437377 -0.022192674 -0.030739814 0.0010139623 0.0007177035
参加境外展会 0.008431728 0.02101579 0.019001184 -0.03303111 -0.008436334 0.016240591 -0.001439455 0.014398387 0.023341885 -0.019954005 -0.008060791 0.004190625 0.0033260754 0.006409737 0.020500105
委托代理参加境外展会 0.026032964 0.025819061 -0.020481646 0.022471223 0.030030493 0.018294958 0.010164244 -0.019741908 0.022632422 0.011998144 -0.027429905 -0.0022720601 -0.00097545015 -0.019148625 0.0067417296
经营活动 0.028888198 -0.013508821 -0.030227914 -0.009919957 0.009685324 -0.01882994 0.011497429 0.030001175 0.021941828 -0.013086858 -0.028448457 -0.019555254 -0.026450187 -0.029291734 0.019596351
企业资质 0.019775016 0.028983131 -0.00914103 0.004805123 0.03041691 -0.016941328 -0.028810736 -0.007833554 -0.03288295 -0.018572439 0.009769042 -0.02607083 0.012610058 -0.0051370254 0.025387049
武器装备科研生产许可 -0.00084914983 0.005628997 0.016028859 0.020821152 0.022196686 -0.0134625565 -0.008547097 0.00951581 0.0070748706 0.012227217 0.004412889 -0.014421705 0.032790843 0.03237255 -0.015419446
军工保密资格认证 -0.026414452 0.019987438 -0.0074040866 0.021739468 -0.004297055 0.007883313 0.005562925 0.011309735 -0.03249005 -0.022758845 -0.001923821 0.028942622 -0.011459067 0.008339982 -0.020117136
军品承制资格 -0.018521365 -0.030478992 0.016988736 0.027380047 0.00089928135 0.018684655 -0.0099447 -0.023578526 0.026479905 0.008596799 -0.02934312 0.025297338 0.028515356 -0.015483145 -0.02452717
武器装备科研生产备案凭证 0.017887574 -0.008337819 -0.018232647 -0.010276241 0.011493836 0.0043696063 0.0073433537 -0.022829711 -0.031086938 -0.031010954 0.014804735 -0.015632752 0.02120415 0.026714955 -0.002341435
省级“专精特新”中小企业 -0.010133677 0.015794143 -0.015861979 0.012493069 -0.009384655 -0.002764282 0.027200285 -0.020532904 -0.024177736 0.000504539 -0.030634327 -0.00065966544 0.010889265 0.0259802 0.030114323
“专精特新”企业 -0.0017201878 -0.0054045464 0.0050595882 0.021558616 -0.014858519 0.022968313 -0.030650487 -0.010192249 -0.017986437 0.014277944 -0.024307437 -0.0006719727 0.008826421 0.018853227 0.011173018
福建省“专精特新”中小企业 0.030321516 0.0075723855 -0.0009910739 0.013887975 -0.027089067 -0.024739454 -0.011435849 -0.026895756 -0.0041619306 -0.023803212 0.0015699624 0.002521829 0.0188705 -0.033166867 -0.023980498
国家专精特新“小巨人企业” -0.008880837 0.030949289 0.014390537 0.004846013 -0.00535524 0.0013031475 0.027986297 -0.025385292 0.015803676 -0.032600254 -0.030436995 0.00246341 0.017072082 -0.0036885643 0.020384496
制造业 0.0010778283 0.031769004 -0.02420986 0.008330361 -0.020015225 0.024414381 -0.022596944 -0.010834213 -0.003525181 -0.0019524433 -0.021497475 -0.016109461 0.013799791 -0.027488768 -0.014630904
“中国好粮油”示范企业 -0.020193806 -0.02939426 -0.015163693 -0.027275668 -0.0075953384 0.01596023 0.02935656 0.003888938 0.020065758 0.0015370159 -0.012000719 0.02417226 0.013518472 -0.00097622606 0.014362815
中国驰名商标 -0.00095391826 0.007084297 -0.00027785543 -0.01093533 -0.02406091 0.020218326 0.023855042 0.008348034 -0.0015909749 -0.021612132 0.007887632 -0.0010722668 0.013827012 -0.01125976 0.031158136
福建名牌产品 -0.030109072 0.00720457 0.01947979 -0.009999272 0.030695835 0.019511517 0.010714064 0.023389604 0.02634387 -0.017726958 -0.024730138 -0.029310241 0.018397527 0.028915228 -0.019420944
省级及以上科技进步奖 0.031601112 0.021455979 -0.009535233 -0.0023322017 -0.008218251 0.030193524 0.010130521 0.0041917907 -0.02597598 0.0011538288 0.008514907 -0.010333338 0.016338086 -0.028061386 -0.0037336631
“泉州好粮油”示范企业 0.0033918046 -0.024908843 0.026314402 -0.011540784 0.024188211 0.020085497 0.016192954 0.0009705424 0.008117266 0.02242861 0.026683023 -0.015192909 0.025109302 0.0016026058 0.027750738
粮油示范企业 0.0019261363 -0.022264276 0.007967416 -0.02785067 -0.010051333 -0.030523976 -0.013097694 0.01951976 -0.006349422 0.026860595 -0.0019584356 0.016429337 0.012818821 -0.0026159019 -0.010140464
重点实验室 0.017325167 0.009701882 0.010835028 0.023679355 0.022675468 0.014873405 0.006896679 -0.014378881 -0.030988622 0.03219935 0.013252302 0.020135002 0.023909274 -0.025364023 -0.012161117
国家重点实验室 0.023142224 -0.003863149 0.033185013 0.019369064 -0.027768519 0.0018692244 0.011240275 0.030572532 0.012682793 -0.013146363 0.012751135 -0.029541876 -0.014832062 -0.004113473 0.0052519524
省级重点实验室 -0.011510844 -0.014896148 0.016386839 0.021699622 0.021719912 -0.010633168 0.011700636 0.007913556 -0.031385764 0.0032803332 -0.018528765 -0.007990557 3.134877e-05 0.0037452655 -0.008497482
新型研发机构 -0.0039424184 0.011723451 0.03257884 -0.025569191 -0.0064567537 0.019652117 0.030224407 -0.018976433 0.0045469035 -0.031629812 0.015799679 0.0107039735 0.027993126 -0.0017767159 0.011663801
市级新型研发机构 0.03095142 0.009630023 -0.03201267 0.008139834 -0.014648655 0.013872144 -0.0020844552 0.01283108 0.010592567 0.027257476 -0.008109029 -0.014940209 -0.0164239 -0.0016661611 -0.014077881
优秀机构 -0.024256138 0.008063398 0.02663221 -0.03154662 -0.029549003 -0.030763008 0.006243728 0.027422307 0.00469226 0.031241596 0.009821755 -0.010929199 -0.0035495125 -0.005100811 0.023220904
良好机构 -0.010837014 -0.013689147 0.016902393 0.016246844 0.014542194 0.021252261 0.03224104 -0.0075428328 0.0133062 -0.03062174 0.022472946 0.006241658 -0.026788166 -0.017797353 0.020985786
星创天地 0.0019923486 -0.030344343 -0.033015855 0.007312859 0.010801497 -0.016337369 0.01665063 -0.031602185 -0.014834839 0.01758054 0.02232564 0.025403323 -0.02867291 -0.01592034 -0.0146001065
省级星创天地 0.024983449 -0.014297816 -0.01897779 -0.030127546 -0.029884122 -0.032420393 0.024685336 0.00032313765 0.029075552 -0.027626747 0.012166985 0.009032799 0.007803272 -0.016045464 0.0051821633
市级星创天地 -0.018683385 0.026525822 0.017268986 -0.005392111 0.0141327 -0.0196596 -0.02193464 -0.004522415 0.02267743 0.029389929 -0.024963442 -0.02141104 -0.012237217 -0.0323242 -0.01364738
泉州市 -0.009381029 0.009970734 0.02278499 0.003398693 -0.005828405 -0.007103381 -0.031598676 0.002737499 -0.031803295 0.021061216 -0.029143842 0.008136324 0.010846915 0.026459359 -0.013697992
机器人高性能伺服电机及驱动器 -0.016273122 0.02204986 0.019444609 -0.024750981 0.012797778 0.001967796 -0.01631752 -0.02342059 0.0034970571 -0.01179697 -0.00796149 -0.011963532 -0.012896404 0.020242084 -0.032074623
高精度减速器 0.012263109 -0.0070786667 -0.02187455 -0.02179104 -0.010705042 0.011564481 5.2905278e-05 -0.0038626192 0.016019233 0.031585634 0.025769228 0.0076542725 -0.02748487 0.015779736 0.02873332
智能控制系统 -0.030229576 0.026951103 -0.0013039662 0.024813222 -0.00325269 -0.014270861 0.026245972 0.009098897 0.03284299 0.017927125 -0.014709914 -0.013381758 -0.0065273056 0.024576271 0.017134383
视觉识别系统 0.009009136 -0.03185325 -0.00826655 -0.002624708 0.0029087053 -0.009014219 -0.010498232 0.017380202 0.0039126193 -0.0049260925 -0.008645866 -0.015482463 0.01653289 -0.031080974 -0.026874324
传感器 0.013120006 -0.00184317 -0.021726772 -0.012981314 0.0011786413 -0.008115595 0.017655544 -0.0170581 0.02344678 0.029751873 0.008985799 -0.0030108294 0.02038498 -0.0070628347 0.011755911
技术开发 -0.018232072 -0.026361298 -0.0017348266 -0.00999951 -0.0080448575 -0.0076486645 -0.010020297 0.0102720065 0.027972067 0.005433849 0.023753982 0.031494386 -0.0054767597 -0.019722845 -0.016783996
系统集成 0.025646634 -0.02572842 -0.0019626892 0.0058121206 0.030709393 0.006330018 0.029579688 0.02721269 -0.02183516 0.023550754 -0.030042065 0.016678711 -0.024518516 0.030823622 0.02209517
产品标签 -0.0035407664 0.018024556 -0.008130662 0.010366118 0.008050093 -0.021257406 -0.013543592 -0.02259257 0.02156413 -0.0036127993 0.00055195694 -0.009031622 -0.008618278 -0.023689784 -0.01301664
光芯片 0.0064468575 0.009297778 0.0045265523 -0.019176636 -0.00018840509 0.009693365 0.005422714 0.032405786 -0.009920403 0.012707244 0.007195253 0.026333757 -0.008656655 -0.004616367 0.017544588
射频芯片 0.0056457818 -0.0016123861 -0.008360257 0.0061785956 -0.02981921 -0.02274656 0.017739575 -0.006988065 0.004235118 -0.007932214 0.027411541 -0.030290628 0.0035997073 -0.011274529 0.0063813166
基带芯片 0.029916992 -0.02223436 0.022842113 0.031202357 -0.013436413 -0.029429697 0.022459252 -0.02692997 -0.016328277 0.003620865 -0.0067839087 -0.014812839 -0.024869837 0.03228906 0.03060636
交换芯片 0.004645573 -0.027008489 -0.01423273 -0.030385667 -0.03229267 0.03235684 0.003178876 0.033121258 9.692123e-05 0.003440314 -0.0072769946 -0.01835263 -0.025634311 0.028165482 0.01679528
芯片模组 -0.012745538 -0.027061356 -0.021598125 -0.028855072 0.025451269 0.029577872 0.02912613 -0.021553736 -0.0035249703 -0.02944228 -0.015137461 -0.0065362416 -0.03222551 -0.011672141 -0.0049411887
射频模块 -0.016890256 0.03318713 -0.008212151 -0.020986503 -0.022207856 -0.004822715 -0.02349979 0.0045801685 -0.029010262 0.01379459 -0.0067919805 -0.019270027 0.0014809518 -0.011063384 -0.0070011127
滤波器 -0.005568636 -0.011042625 0.024753608 -0.0276628 -0.0015213919 -0.028764851 0.029878799 0.013994436 -0.00049741776 0.0073735914 0.0011983208 -0.00263824 0.0032984072 0.0054277414 -0.008543993
功率放大器 0.00734314 -0.026323987 0.012121246 0.021915728 -0.027557712 0.026895294 -0.019688787 0.027559178 0.019417295 0.026237044 -0.029870426 -0.007683954 -0.009033081 -0.0266818 -0.009025418
射频开关 -0.005745362 -0.027528811 0.024113905 0.0038494458 -0.0098152 0.029890386 -0.02888418 -0.01426701 0.010557869 -0.024846256 -0.011011961 -0.0072821295 0.0058542737 0.027551686 -0.021745782
有源光器件 0.0027865418 -0.012987488 0.00095145626 0.0017065478 0.0036339066 -0.018539649 -0.0054268106 0.0038033559 -0.024564538 -0.025977522 0.005505031 -0.017075412 0.02113413 0.027909232 0.00021829156
无源光器件 0.0008686725 0.023941247 -0.03186976 0.013387488 0.005134424 -0.03279984 0.025628353 -0.001365874 0.00908188 0.024236038 0.017211396 0.021770116 -0.020648131 0.0069571016 -0.01793099
波分复用器 0.014543451 -0.0017159979 -0.010757586 0.013663387 -0.0030252172 -0.0011983322 0.0026155794 -0.0063395128 -0.021054545 0.016205972 -0.018985637 0.02045896 0.01942348 -0.016731853 -0.0072539933
光纤光缆光棒 -0.02475023 -0.010072799 -0.023859026 0.01206128 -0.012310792 0.010574913 0.013053517 0.003001299 0.0276271 0.013282239 0.015430259 0.011066359 0.0017923473 0.022205852 0.0014565284
射频电缆 0.010098203 0.012175132 0.016964745 0.012236216 -0.021388762 0.031608332 -0.024425056 -0.024538647 -0.027359767 0.0018056006 -0.021292612 -0.007859681 -0.020983947 -0.0056186495 0.023781165
天线 0.018067632 0.006766772 -0.027880866 0.0213613 -0.027199116 -0.0030371018 0.03074688 -0.026239175 -0.018050505 -0.008392884 -0.030527726 0.0029614454 0.007520265 0.03158875 0.01626581
微站 0.006762039 -0.01608585 -0.027992837 -0.025104892 -0.006592916 0.007864733 0.014904013 -0.006619351 0.0024875505 0.0010271278 -0.025695296 0.0060711666 0.031121979 -0.014611608 -0.024710568
基站设备 0.025611004 0.006911201 -0.004112184 0.0051282584 -0.013602824 0.009559344 -0.02359167 0.004955016 -0.010459599 -0.021163879 -0.03060097 0.009402513 0.030893011 0.0047340295 -0.00076970045
交换机 0.020605046 0.024148358 -0.020278197 -0.008759342 0.022223795 0.022882843 -0.02465514 -0.02485381 -0.022270711 0.016305266 -0.02878554 -0.029626042 0.017310102 -0.0146047175 0.017193766
路由器 0.003759859 -0.005993814 -0.01055857 0.030162608 0.020334447 0.007977843 -0.00044381135 0.032067157 -0.031040512 0.0155102275 -0.01983321 0.028675653 -0.003787175 -0.023750484 -0.016551102
服务器 0.016914314 -0.024776505 -0.01297531 0.0139447395 -0.0137871 0.026768137 0.00615693 -0.026996057 -0.0040960456 0.027932616 -0.01689891 0.02988252 -0.0031663326 -0.018271167 0.014410502
规划设计 -0.003405789 -0.014505553 -0.0053797234 -0.019492133 -0.010550043 -0.02599593 -0.024626411 -0.010739817 -0.004910854 0.024269683 -0.024956144 -0.032573916 -0.025272643 -0.012221963 0.028966391
网络优化和维护 0.024072584 0.018045727 -0.024284815 0.022777304 0.014458911 0.015572586 0.0011336242 0.017502176 0.029393522 -0.02035589 -0.0145714935 -0.02466305 0.027976876 -0.009129928 -0.011337534
SDN/NFV 0.010455955 0.032068618 0.0042489106 0.006343766 -0.030280042 -0.024169296 0.01157896 -0.0050638113 -0.021482093 -0.0071797683 0.03210084 -0.022105042 0.030027993 -0.017822335 0.0049043735
运营商 -0.021975163 0.021529173 -0.031422008 -0.0071592513 -0.00972161 0.0004222111 -0.026121262 0.004630557 0.02482685 0.010187712 -0.009986689 0.006642871 -0.02578821 -0.026154816 -0.03296837
运营服务 -0.0067504486 0.008059215 -0.015809745 0.01132559 -0.0005063146 0.022965932 0.021277525 -0.0053996053 0.02036459 -0.006541839 0.022243198 -0.016049698 -0.01136406 0.00622767 -0.010566715
手机 0.006332603 0.017650757 -0.023937726 -0.0076523586 -0.03247932 0.032419037 0.010473529 0.0048501245 -0.019130034 0.01998469 0.016821716 -0.010045868 -0.028731508 0.009011355 -0.025253156
对讲机 0.0099995695 0.017757764 -0.014249299 0.010713227 0.015186612 -0.022151567 0.008427343 0.005040474 0.0060253413 0.024422236 0.011083953 0.019642945 0.031767223 -0.020577436 0.01872842
智能终端 -0.024699714 0.016262777 -0.027845101 0.012155479 0.005085533 -0.01987849 -0.020879375 0.011782573 -0.0026658056 0.01614649 0.010450379 -0.014744524 -0.0066433735 -0.007093929 0.0036522995
工业设备 0.026647333 -0.0005130562 -0.005466357 -0.03198286 -0.027640127 0.028323706 0.017988052 0.021351328 -0.004660934 -0.011948261 -0.01493325 -0.003612627 0.0029632272 -0.026433494 -0.004390431
智能穿戴设备 -0.013233105 -0.025606906 -0.029128496 0.010749496 0.0039068414 -0.02504414 -0.0054482226 0.028399708 0.01975368 0.007884006 0.0054335264 0.02087723 0.030301873 0.024143467 -0.03263648
高清视频 0.032150786 -0.012141786 0.032407064 -0.020548336 0.024814917 -0.012745199 0.026017042 0.015482033 -0.022669278 0.018571343 -0.02704875 0.029932411 0.03201832 -0.0017227621 0.031727076
VR/AR -0.028312182 0.006334424 0.014116362 -0.009118812 0.025169218 0.023205867 0.004603069 -0.009746676 0.01013792 0.021948641 0.008457418 -0.01851322 0.0051291855 -0.0043693297 0.012817915
物联网 0.0149489995 0.0034592983 0.017490748 -0.030871838 0.022170903 -0.023623804 -0.0027919172 0.0007657369 0.019334663 -0.016582815 0.00762734 -0.006469428 -0.00977259 -0.030798474 0.026306396
车联网 -0.020450266 -0.0058624884 0.022589494 -0.012752101 0.0095987115 -0.030572621 0.012597936 0.005654952 -0.0022197333 -0.024016146 0.009508205 0.02119901 -0.019716077 0.012058535 0.003766681
智慧城市 0.02773529 -0.020482585 0.012091255 0.0008854444 0.019387169 -0.00759885 0.027480798 -0.017360602 -0.015072162 0.032171194 -0.017723702 -0.023973614 -0.0059719193 -0.0139684705 -0.014087434
工业互联网 -0.0015441747 -0.011278688 0.0181794 -0.002320336 0.020926345 0.03283889 0.019645324 0.014756268 0.017938988 -0.01291688 -0.0099907145 -0.029928394 -0.025589649 0.025906747 0.014259023
大数据与云服务 -0.0035210438 -0.023608176 -0.00083050557 -0.03140417 0.010897765 -0.010745556 -0.028154934 -0.00041014203 0.031232206 0.025559919 0.022330064 0.023651028 -0.021295508 -0.014336291 0.023309434
机器人 0.006371916 -0.021386858 -0.023950431 -0.023893455 -0.0023945475 -0.005939066 -0.023634726 -0.0059088045 -0.013794355 -0.0022177657 -0.0075565646 0.0333147 -0.028051397 0.002095731 -0.005489815
荣誉指标 -0.014893409 -0.021441618 -0.019236403 0.030729605 -0.01827402 -0.030670483 0.015871515 0.02806746 0.0044246437 -0.014467618 -0.02425334 0.026018662 0.016763482 -0.009306419 0.031456802
首台（套）“数控一代”重大技术装备 -0.028826693 -0.031600785 -0.010584883 -0.02689133 -0.012991822 0.014215527 -0.0010096047 -0.017096557 -0.011740835 -0.021753617 0.02258679 -0.025779495 -0.006985799 -0.018320402 -0.011453069
数字化车间 -0.011807825 -0.02226042 0.012678311 -0.0023605071 0.0019570456 -0.032203857 -0.02874338 0.0149356555 0.010868376 -0.02241758 -0.022890655 0.026927175 -0.026663573 -0.0138267735 0.031515185
工业机器人伺服电机 -0.032707285 -0.020882627 0.009972419 -0.0021679308 0.029321752 -0.025672292 0.014198653 -0.031074509 -0.016991707 -0.01166475 0.019178139 -0.0028331592 0.002525478 0.02493214 0.020436253
减速器 -0.028094556 -0.013074939 -0.007840398 -0.02630428 -0.016854577 0.0031971955 0.018891675 0.008834886 0.017889995 0.011430741 -0.0065294965 -0.012422721 0.0029048386 0.030064072 0.009359776
控制器 -0.02024057 0.018636312 -0.005962778 -0.0006453207 0.000454974 0.0061250767 0.024674514 -0.03157819 -0.022881197 0.0022674862 0.005512112 0.026990386 -0.019351821 0.024734901 -0.0059061726
关键技术开发及系统集成 0.018727401 0.026584841 -0.019060297 -0.02904703 -0.018770617 0.03311597 0.022033498 -0.024436167 0.015127963 -0.025892287 -0.019749949 -0.03225708 -0.003929919 0.0022987144 0.02227187
智能化标杆工厂 0.032167867 0.022280438 -0.031780027 0.0158115 -0.01493855 -0.02643078 0.021880435 0.018556822 -0.009803383 -0.0069019725 0.012024909 0.00085396925 -0.032418665 -0.028753567 -0.01521269
国家智能制造试点示范项目 -0.026456626 0.0032718314 0.009099568 0.031168327 -0.007185058 0.020061024 0.01024424 0.00064551283 -0.021816576 0.017546523 0.008829316 -0.030203758 0.033329684 0.019087898 -0.010506489
智能制造试点专项项目 0.029104741 -0.019538332 -0.03021442 -0.0010561483 0.0001513499 0.0011909623 -0.019046871 -0.0019473116 -0.027467232 0.0076840385 0.0038386036 0.0046050367 -0.02359028 -0.02156786 0.022074169
省级智能制造企业试点示范 0.014499508 0.009835827 -0.0011179497 0.020295233 0.013359684 -0.008491695 -0.0052844714 0.01483566 -0.0073499624 0.02287305 0.029021967 0.029810501 -0.0010816231 -0.012289179 -0.016703578
智能制造项目服务 -0.0018546178 -0.0030545918 0.0098413 -0.024604492 -0.010780502 0.003224154 0.032184996 -0.005630627 -0.011613924 -0.03267401 -0.0112545015 0.0088817775 0.014057701 0.028477889 0.03254107
国家智能制造系统解决方案供应商推荐目录 -0.03241396 0.03183195 -0.011452136 -0.008462634 -0.026061377 0.025040833 -0.013458082 0.02411298 0.032432426 -0.028858768 0.023548126 0.029895231 0.012918403 -0.015885713 -0.027001962
国家规划布局内重点软件企业和集成电路设计企业 -0.014663031 -0.017779475 -0.029326523 -0.027158206 -0.017411506 0.0058489568 -0.032680154 -0.009849299 -0.017156366 -0.005649148 0.01828734 -0.019588964 -0.024533417 -0.015453225 0.031565323
全国软件百强 0.03219283 0.006395441 0.00421592 0.031183826 -0.03281038 0.006869185 0.007919181 -0.018914336 0.01679031 -0.0004770373 0.0007950189 0.01375576 0.0018790552 0.030820603 -0.0038284669
境内外知名软件企业及研发机构企业 -0.00214337 0.0020935189 -0.006399983 0.0025283194 0.0063294047 -0.0022035474 -0.031234628 0.026192002 -0.01877625 0.025925685 -0.021035507 -0.030726496 0.01838357 0.011409946 -0.02458263
市外公开招标项目中标 -0.03040853 0.031817734 0.020685937 0.0060919486 0.012409799 -0.026915686 -0.004855913 -0.019965656 -0.019968271 -0.023196256 -0.030459248 -0.02407774 0.019685289 0.026500164 -0.024639709
省软件产业专项资金奖励 0.022750586 -0.020584946 0.0068450817 0.008244097 0.028768037 -0.017146215 -0.031035015 0.029414045 -0.019981235 -0.02326263 0.025769176 -0.017353982 0.0009992621 -0.0071627847 -0.023556337
国家计算机信息系统集成资质一级 -0.00977074 0.013867914 0.0140878325 -0.015843496 -0.0060837995 -0.00880324 0.032480583 0.008836542 0.0031141825 -0.026326919 -0.0014922365 -0.022461051 0.0223372 0.028492415 0.0045083496
较大创新的首台（套）数控装备 0.0034074795 -0.029939318 -0.0038239209 0.0065779407 0.017860549 -0.025405476 0.007995547 -0.026757102 -0.029154265 0.0300613 0.005466595 -0.012904536 -4.301696e-05 0.0072014504 0.028989159
福建省级众创空间 0.022302706 -0.008404339 -0.004211548 0.019656427 0.026228677 -0.0023632778 -0.02595364 0.0068238364 0.023728708 -0.026651617 -0.021324974 0.0025669977 -0.026460556 -0.008333456 -0.027831357
泉州市级众创空间 -0.028490331 0.007990329 -0.01181373 -0.007528549 -0.021097254 -0.029994305 0.014627166 0.024318926 -0.0063228095 -0.016687438 -0.0010848972 0.0011102436 -0.030919813 0.006391444 0.031023925
新投产纳统工业企业 -0.011689069 0.019451903 0.0053838394 0.023331195 -0.03134729 -0.014502062 0.017770577 0.011689022 0.0062192995 -0.017121168 0.007430215 0.01228809 -0.024719259 0.009239933 -0.031003553
规下转规上企业 0.011281476 -0.028394848 -0.008181756 -0.010944282 -0.02521528 -0.009858289 0.01661576 0.023488853 -0.016498689 0.0016033753 0.016991364 0.012081642 0.0071883104 0.026302146 0.007970873
新认定的国家级制造业创新中心 0.00840504 -0.031226212 -0.017344233 -0.028737906 -0.02622376 0.012399006 -0.03299156 -0.0075195185 0.0023644592 0.011797097 0.021370161 -0.019095348 -0.019886615 0.029568568 0.031226406
新认定的省级制造业创新中心 0.022620913 -0.014460141 -0.0026481783 -0.030015681 0.023927532 0.026609985 -0.025188157 -0.0037581108 -0.0048569134 -0.0149366 -0.028511072 0.015771361 -0.032755625 0.02020463 0.012584295
